digraph Tree {
node [shape=box] ;
0 [label="X[1] <= 0.5\nentropy = 0.957\nsamples = 899\nvalue = [559, 340]"] ;
1 [label="X[0] <= 2.5\nentropy = 0.68\nsamples = 311\nvalue = [56, 255]"] ;
0 -> 1 [labeldistance=2.5, labelangle=45, headlabel="True"] ;
2 [label="X[0] <= 1.5\nentropy = 0.195\nsamples = 166\nvalue = [5, 161]"] ;
1 -> 2 ;
3 [label="X[2] <= 0.5\nentropy = 0.15\nsamples = 93\nvalue = [2, 91]"] ;
2 -> 3 ;
4 [label="entropy = 0.154\nsamples = 45\nvalue = [1, 44]"] ;
3 -> 4 ;
5 [label="X[2] <= 1.5\nentropy = 0.146\nsamples = 48\nvalue = [1, 47]"] ;
3 -> 5 ;
6 [label="entropy = 0.0\nsamples = 1\nvalue = [0, 1]"] ;
5 -> 6 ;
7 [label="entropy = 0.149\nsamples = 47\nvalue = [1, 46]"] ;
5 -> 7 ;
8 [label="X[2] <= 1.5\nentropy = 0.247\nsamples = 73\nvalue = [3, 70]"] ;
2 -> 8 ;
9 [label="entropy = 0.0\nsamples = 9\nvalue = [0, 9]"] ;
8 -> 9 ;
10 [label="entropy = 0.273\nsamples = 64\nvalue = [3, 61]"] ;
8 -> 10 ;
11 [label="X[2] <= 1.5\nentropy = 0.936\nsamples = 145\nvalue = [51, 94]"] ;
1 -> 11 ;
12 [label="X[2] <= 0.5\nentropy = 0.742\nsamples = 57\nvalue = [12, 45]"] ;
11 -> 12 ;
13 [label="entropy = 0.918\nsamples = 18\nvalue = [6, 12]"] ;
12 -> 13 ;
14 [label="entropy = 0.619\nsamples = 39\nvalue = [6, 33]"] ;
12 -> 14 ;
15 [label="entropy = 0.991\nsamples = 88\nvalue = [39, 49]"] ;
11 -> 15 ;
16 [label="X[0] <= 1.5\nentropy = 0.596\nsamples = 588\nvalue = [503, 85]"] ;
0 -> 16 [labeldistance=2.5, labelangle=-45, headlabel="False"] ;
17 [label="X[2] <= 1.5\nentropy = 0.899\nsamples = 127\nvalue = [87, 40]"] ;
16 -> 17 ;
18 [label="X[2] <= 0.5\nentropy = 0.884\nsamples = 53\nvalue = [37, 16]"] ;
17 -> 18 ;
19 [label="entropy = 0.89\nsamples = 52\nvalue = [36, 16]"] ;
18 -> 19 ;
20 [label="entropy = 0.0\nsamples = 1\nvalue = [1, 0]"] ;
18 -> 20 ;
21 [label="entropy = 0.909\nsamples = 74\nvalue = [50, 24]"] ;
17 -> 21 ;
22 [label="X[2] <= 0.5\nentropy = 0.461\nsamples = 461\nvalue = [416, 45]"] ;
16 -> 22 ;
23 [label="X[0] <= 2.5\nentropy = 0.643\nsamples = 55\nvalue = [46, 9]"] ;
22 -> 23 ;
24 [label="entropy = 0.65\nsamples = 12\nvalue = [10, 2]"] ;
23 -> 24 ;
25 [label="entropy = 0.641\nsamples = 43\nvalue = [36, 7]"] ;
23 -> 25 ;
26 [label="X[2] <= 1.5\nentropy = 0.432\nsamples = 406\nvalue = [370, 36]"] ;
22 -> 26 ;
27 [label="X[0] <= 2.5\nentropy = 0.262\nsamples = 45\nvalue = [43, 2]"] ;
26 -> 27 ;
28 [label="entropy = 0.0\nsamples = 4\nvalue = [4, 0]"] ;
27 -> 28 ;
29 [label="entropy = 0.281\nsamples = 41\nvalue = [39, 2]"] ;
27 -> 29 ;
30 [label="X[0] <= 2.5\nentropy = 0.45\nsamples = 361\nvalue = [327, 34]"] ;
26 -> 30 ;
31 [label="entropy = 0.409\nsamples = 110\nvalue = [101, 9]"] ;
30 -> 31 ;
32 [label="entropy = 0.468\nsamples = 251\nvalue = [226, 25]"] ;
30 -> 32 ;
}
